FANN_FLO_2.1
num_layers=3
learning_rate=0.700000
connection_rate=1.000000
network_type=0
learning_momentum=0.000000
training_algorithm=2
train_error_function=1
train_stop_function=0
cascade_output_change_fraction=0.010000
quickprop_decay=-0.000100
quickprop_mu=1.750000
rprop_increase_factor=1.200000
rprop_decrease_factor=0.500000
rprop_delta_min=0.000000
rprop_delta_max=50.000000
rprop_delta_zero=0.100000
cascade_output_stagnation_epochs=12
cascade_candidate_change_fraction=0.010000
cascade_candidate_stagnation_epochs=12
cascade_max_out_epochs=150
cascade_min_out_epochs=50
cascade_max_cand_epochs=150
cascade_min_cand_epochs=50
cascade_num_candidate_groups=2
bit_fail_limit=3.49999994039535522461e-01
cascade_candidate_limit=1.00000000000000000000e+03
cascade_weight_multiplier=4.00000005960464477539e-01
cascade_activation_functions_count=10
cascade_activation_functions=3 5 7 8 10 11 14 15 16 17 
cascade_activation_steepnesses_count=4
cascade_activation_steepnesses=2.50000000000000000000e-01 5.00000000000000000000e-01 7.50000000000000000000e-01 1.00000000000000000000e+00 
layer_sizes=33 11 2 
scale_included=0
neurons (num_inputs, activation_function, activation_steepness)=(0, 0, 0.00000000000000000000e+00) (0, 0, 0.00000000000000000000e+00) (0, 0, 0.00000000000000000000e+00) (0, 0, 0.00000000000000000000e+00) (0, 0, 0.00000000000000000000e+00) (0, 0, 0.00000000000000000000e+00) (0, 0, 0.00000000000000000000e+00) (0, 0, 0.00000000000000000000e+00) (0, 0, 0.00000000000000000000e+00) (0, 0, 0.00000000000000000000e+00) (0, 0, 0.00000000000000000000e+00) (0, 0, 0.00000000000000000000e+00) (0, 0, 0.00000000000000000000e+00) (0, 0, 0.00000000000000000000e+00) (0, 0, 0.00000000000000000000e+00) (0, 0, 0.00000000000000000000e+00) (0, 0, 0.00000000000000000000e+00) (0, 0, 0.00000000000000000000e+00) (0, 0, 0.00000000000000000000e+00) (0, 0, 0.00000000000000000000e+00) (0, 0, 0.00000000000000000000e+00) (0, 0, 0.00000000000000000000e+00) (0, 0, 0.00000000000000000000e+00) (0, 0, 0.00000000000000000000e+00) (0, 0, 0.00000000000000000000e+00) (0, 0, 0.00000000000000000000e+00) (0, 0, 0.00000000000000000000e+00) (0, 0, 0.00000000000000000000e+00) (0, 0, 0.00000000000000000000e+00) (0, 0, 0.00000000000000000000e+00) (0, 0, 0.00000000000000000000e+00) (0, 0, 0.00000000000000000000e+00) (0, 0, 0.00000000000000000000e+00) (33, 5, 5.00000000000000000000e-01) (33, 5, 5.00000000000000000000e-01) (33, 5, 5.00000000000000000000e-01) (33, 5, 5.00000000000000000000e-01) (33, 5, 5.00000000000000000000e-01) (33, 5, 5.00000000000000000000e-01) (33, 5, 5.00000000000000000000e-01) (33, 5, 5.00000000000000000000e-01) (33, 5, 5.00000000000000000000e-01) (33, 5, 5.00000000000000000000e-01) (0, 5, 0.00000000000000000000e+00) (11, 5, 5.00000000000000000000e-01) (0, 5, 0.00000000000000000000e+00) 
connections (connected_to_neuron, weight)=(0, -3.20727527141571044922e-02) (1, 1.84712726622819900513e-02) (2, -6.77182301878929138184e-02) (3, 7.19318725168704986572e-03) (4, -9.11536812782287597656e-02) (5, 1.07952289283275604248e-01) (6, -1.38448834419250488281e-01) (7, 4.00623418390750885010e-02) (8, -8.52254871279001235962e-03) (9, 1.07611536979675292969e-01) (10, -5.82948587834835052490e-02) (11, 2.31104776263236999512e-01) (12, 3.51859405636787414551e-02) (13, 1.49450987577438354492e-01) (14, -3.46369415521621704102e-01) (15, 9.93842184543609619141e-01) (16, 9.50799603015184402466e-03) (17, 1.77613452076911926270e-01) (18, -2.74951040744781494141e-01) (19, 3.02479505538940429688e-01) (20, -1.52964405715465545654e-02) (21, 3.80023241043090820312e-01) (22, -8.09422791004180908203e-01) (23, 6.02591484785079956055e-02) (24, 2.08457950502634048462e-02) (25, -5.04717305302619934082e-02) (26, -9.26133245229721069336e-02) (27, 7.77974724769592285156e-02) (28, 1.94200389087200164795e-02) (29, 5.52470348775386810303e-02) (30, -1.12587437033653259277e-01) (31, 8.50911140441894531250e-01) (32, 4.80470091104507446289e-01) (0, 6.38422489166259765625e-01) (1, 7.33305931091308593750e-01) (2, 7.02126383781433105469e-01) (3, 6.53210163116455078125e-01) (4, 6.34251475334167480469e-01) (5, 6.18975698947906494141e-01) (6, 6.04597330093383789062e-01) (7, 7.09495425224304199219e-01) (8, 4.07590532302856445312e+00) (9, 1.19273166656494140625e+01) (10, 7.34128892421722412109e-01) (11, 2.24097709655761718750e+01) (12, 7.34217047691345214844e-01) (13, 9.56777215003967285156e-01) (14, 7.27549612522125244141e-01) (15, 2.80053472518920898438e+00) (16, 7.61807441711425781250e-01) (17, 7.95101463794708251953e-01) (18, 6.01891517639160156250e-01) (19, 1.21768224239349365234e+00) (20, 6.99410855770111083984e-01) (21, 6.00609159469604492188e+00) (22, 3.24831604957580566406e-01) (23, 7.76762962341308593750e-01) (24, 7.49450445175170898438e-01) (25, 7.42527365684509277344e-01) (26, 6.24645054340362548828e-01) (27, 8.78689765930175781250e-01) (28, 7.25831031799316406250e-01) (29, 6.74131274223327636719e-01) (30, 6.23268067836761474609e-01) (31, 1.18960304260253906250e+01) (32, -2.58301526308059692383e-01) (0, -3.31646174192428588867e-01) (1, -2.07138836383819580078e-01) (2, -2.07595661282539367676e-01) (3, -3.29006612300872802734e-01) (4, -3.60632836818695068359e-01) (5, -3.18502783775329589844e-01) (6, -2.61005222797393798828e-01) (7, -3.04067224264144897461e-01) (8, -7.43246269226074218750e+00) (9, -5.79330348968505859375e+00) (10, -1.04415166378021240234e+00) (11, -9.31404571533203125000e+01) (12, -2.81313717365264892578e-01) (13, -5.36054909229278564453e-01) (14, -2.47641354799270629883e-01) (15, -1.32257294654846191406e+00) (16, -3.54864060878753662109e-01) (17, -4.41804051399230957031e-01) (18, -2.41137206554412841797e-01) (19, -5.14333784580230712891e-01) (20, -3.10161978006362915039e-01) (21, -4.25790596008300781250e+01) (22, 1.88049390912055969238e-01) (23, -2.28200539946556091309e-01) (24, -2.80362814664840698242e-01) (25, -3.50189447402954101562e-01) (26, -2.15035334229469299316e-01) (27, -4.47092056274414062500e-01) (28, -2.15869858860969543457e-01) (29, -3.59373927116394042969e-01) (30, -2.50925332307815551758e-01) (31, -8.14728927612304687500e+00) (32, 7.08458364009857177734e-01) (0, -1.70614802837371826172e+00) (1, -1.72448861598968505859e+00) (2, -1.56942522525787353516e+00) (3, -2.47937157750129699707e-01) (4, -4.75046634674072265625e-01) (5, -1.34528487920761108398e-01) (6, -1.50020051002502441406e+00) (7, -1.51314318180084228516e-01) (8, -3.70283834636211395264e-02) (9, 5.37866532802581787109e-01) (10, -9.14091318845748901367e-02) (11, 3.60393404960632324219e+00) (12, -1.43340080976486206055e-01) (13, -4.14201840758323669434e-02) (14, -5.82201965153217315674e-02) (15, -2.19124183058738708496e-02) (16, -1.58704996109008789062e-01) (17, 2.89270766079425811768e-02) (18, -2.50360369682312011719e-01) (19, -7.83727318048477172852e-02) (20, -3.61230075359344482422e-01) (21, 3.58709263801574707031e+00) (22, -4.52730745077133178711e-01) (23, -1.93001225590705871582e-01) (24, -7.13051021099090576172e-01) (25, -1.05748228728771209717e-01) (26, -7.26439774036407470703e-01) (27, -5.20846173167228698730e-02) (28, -1.75290966033935546875e+00) (29, -7.58397430181503295898e-02) (30, -3.87962549924850463867e-01) (31, 2.58366346359252929688e-01) (32, 2.64462280273437500000e+00) (0, -1.63740241527557373047e+00) (1, -1.58808946609497070312e+00) (2, -8.02493870258331298828e-01) (3, -4.06603991985321044922e-01) (4, -5.44474720954895019531e-01) (5, -2.24981635808944702148e-01) (6, -9.25622403621673583984e-01) (7, -2.09500337950885295868e-03) (8, -1.72055944800376892090e-01) (9, -9.03078690171241760254e-02) (10, -1.38072475790977478027e-01) (11, 1.07774460315704345703e+00) (12, -1.51501595973968505859e-01) (13, -2.59064644575119018555e-01) (14, -2.00131565332412719727e-01) (15, 1.41411451622843742371e-02) (16, -2.15412557125091552734e-01) (17, 2.69752312451601028442e-02) (18, -5.43526522815227508545e-02) (19, -1.70002412796020507812e+00) (20, -3.32115888595581054688e-01) (21, 5.44976329803466796875e+00) (22, -3.58794867992401123047e-01) (23, -5.10976165533065795898e-02) (24, -3.74543488025665283203e-01) (25, 6.11357092857360839844e-01) (26, -4.07210171222686767578e-01) (27, -2.75075081735849380493e-02) (28, -8.48979294300079345703e-01) (29, -2.29514330625534057617e-01) (30, -4.18176531791687011719e-01) (31, 2.48177647590637207031e+00) (32, 1.39710032939910888672e+00) (0, -2.85367846488952636719e-01) (1, -3.42065840959548950195e-01) (2, -3.53540658950805664062e-01) (3, -3.07949930429458618164e-01) (4, -2.31244906783103942871e-01) (5, -3.71153920888900756836e-01) (6, -2.94733405113220214844e-01) (7, -3.04813385009765625000e-01) (8, -8.09808540344238281250e+00) (9, -2.13856220245361328125e+01) (10, -8.78349125385284423828e-01) (11, -8.63139801025390625000e+01) (12, -3.43059867620468139648e-01) (13, -4.46662783622741699219e-01) (14, -2.00887516140937805176e-01) (15, -1.27853989601135253906e+00) (16, -3.07157516479492187500e-01) (17, -3.54262620210647583008e-01) (18, -2.59345233440399169922e-01) (19, -5.69873988628387451172e-01) (20, -2.30142191052436828613e-01) (21, -1.74220523834228515625e+01) (22, -3.46555590629577636719e-01) (23, -1.69781970977783203125e+01) (24, -3.70253145694732666016e-01) (25, -4.40310925245285034180e-01) (26, -1.90639182925224304199e-01) (27, -3.97349387407302856445e-01) (28, -2.24375829100608825684e-01) (29, -1.84175044298171997070e-01) (30, -2.92989045381546020508e-01) (31, -7.82926177978515625000e+00) (32, 7.63454198837280273438e-01) (0, -1.67963469028472900391e+00) (1, -1.65866982936859130859e+00) (2, -1.59070432186126708984e+00) (3, -2.62246072292327880859e-01) (4, -2.36060559749603271484e-01) (5, -1.87350094318389892578e-01) (6, -1.39273262023925781250e+00) (7, -6.25836029648780822754e-02) (8, -1.30892157554626464844e-01) (9, -1.36514101177453994751e-02) (10, -2.37465232610702514648e-01) (11, 1.37861454486846923828e+00) (12, -1.91528126597404479980e-01) (13, -1.35150834918022155762e-01) (14, -1.70392632484436035156e-01) (15, -2.26162560284137725830e-02) (16, -7.97421112656593322754e-02) (17, 6.67388550937175750732e-04) (18, -6.39632195234298706055e-02) (19, -1.94317743182182312012e-01) (20, -3.55027705430984497070e-01) (21, 3.89255785942077636719e+00) (22, -2.79384911060333251953e-01) (23, -1.27485439181327819824e-01) (24, -3.12898695468902587891e-01) (25, -5.98304867744445800781e-02) (26, -3.75804781913757324219e-01) (27, -1.16230182349681854248e-01) (28, -5.23335933685302734375e-01) (29, -1.52564778923988342285e-01) (30, -3.99216026067733764648e-01) (31, 2.36653733253479003906e+00) (32, 2.66201281547546386719e+00) (0, 6.03527188301086425781e-01) (1, 5.67980408668518066406e-01) (2, 7.32813835144042968750e-01) (3, 7.05347657203674316406e-01) (4, 5.95656037330627441406e-01) (5, 7.25499212741851806641e-01) (6, 5.49507200717926025391e-01) (7, 7.37599134445190429688e-01) (8, 4.18986606597900390625e+00) (9, 1.18992614746093750000e+01) (10, 6.74618124961853027344e-01) (11, 2.25571193695068359375e+01) (12, 6.94173336029052734375e-01) (13, 9.86569821834564208984e-01) (14, 7.23618090152740478516e-01) (15, 2.75372982025146484375e+00) (16, 6.37187421321868896484e-01) (17, 8.91486823558807373047e-01) (18, 7.27547526359558105469e-01) (19, 1.24160921573638916016e+00) (20, 6.55399024486541748047e-01) (21, 5.90525150299072265625e+00) (22, 3.19616734981536865234e-01) (23, 6.85647547245025634766e-01) (24, 6.70692205429077148438e-01) (25, 7.24869489669799804688e-01) (26, 6.40076696872711181641e-01) (27, 9.26451086997985839844e-01) (28, 7.49266386032104492188e-01) (29, 5.75795471668243408203e-01) (30, 7.41958796977996826172e-01) (31, 1.18845710754394531250e+01) (32, -3.21962743997573852539e-01) (0, 2.41017490625381469727e-02) (1, 2.75519546121358871460e-02) (2, -8.16569179296493530273e-02) (3, -1.21923508122563362122e-02) (4, -7.48205184936523437500e-02) (5, 9.99064967036247253418e-02) (6, -1.50937139987945556641e-01) (7, 5.91236632317304611206e-03) (8, 1.96993678808212280273e-01) (9, 1.03354722261428833008e-01) (10, 1.03450953960418701172e-01) (11, 1.02524757385253906250e-01) (12, -1.01480908691883087158e-01) (13, 1.99059247970581054688e-01) (14, -4.09478396177291870117e-01) (15, 8.24126958847045898438e-01) (16, -5.97089566290378570557e-02) (17, 1.32232112810015678406e-02) (18, -6.02061599493026733398e-02) (19, 1.83577850461006164551e-01) (20, -4.19358313083648681641e-02) (21, 3.59559834003448486328e-01) (22, -7.49080598354339599609e-01) (23, 1.11653707921504974365e-01) (24, -8.92465561628341674805e-02) (25, 9.22941341996192932129e-02) (26, 3.40593419969081878662e-02) (27, -1.44721637479960918427e-03) (28, 3.19621264934539794922e-02) (29, 8.70978683233261108398e-02) (30, -1.04797974228858947754e-01) (31, 9.20984864234924316406e-01) (32, 5.16243338584899902344e-01) (0, 4.50478732585906982422e-01) (1, 3.91687661409378051758e-01) (2, 3.52740526199340820312e-01) (3, 4.52242434024810791016e-01) (4, 4.06820505857467651367e-01) (5, 3.83380264043807983398e-01) (6, 4.30965036153793334961e-01) (7, 4.66356486082077026367e-01) (8, -1.61813765764236450195e-01) (9, -4.25320655107498168945e-01) (10, 6.26950621604919433594e-01) (11, 9.24022972583770751953e-01) (12, 5.84640085697174072266e-01) (13, 4.71716910600662231445e-01) (14, 5.26111185550689697266e-01) (15, 1.12139451503753662109e+00) (16, -8.40753674507141113281e-01) (17, -5.39671611785888671875e+00) (18, 4.22420114278793334961e-01) (19, 7.07929193973541259766e-01) (20, 4.93394374847412109375e-01) (21, -3.66256189346313476562e+00) (22, 1.38573300838470458984e+00) (23, 6.28124666213989257812e+00) (24, 5.02838432788848876953e-01) (25, 3.08929085731506347656e-01) (26, 4.07279551029205322266e-01) (27, 5.42258322238922119141e-01) (28, 3.88183236122131347656e-01) (29, 2.22143030166625976562e+00) (30, 5.45538723468780517578e-01) (31, -6.24819421768188476562e+00) (32, -5.53871616721153259277e-02) (33, 3.82536590099334716797e-01) (34, 7.27477788925170898438e-01) (35, -2.65566796064376831055e-01) (36, 3.91344040632247924805e-01) (37, 4.02803868055343627930e-01) (38, -3.21925342082977294922e-01) (39, 4.21297997236251831055e-01) (40, 6.80746197700500488281e-01) (41, 3.47494214773178100586e-01) (42, -1.34234830737113952637e-01) (43, -2.18813493847846984863e-01) 
